<?xml version="1.0" encoding="UTF-8" standalone="yes"?>
<PMML xmlns="https://www.dmg.org/PMML-4_4" version="4.4">
	<Header/>
	<DataDictionary/>
	<TreeModel>
		<MiningSchema/>
		<Node id="parent" recordCount="1">
			<True/>
			<Node id="false child" score="false">
				<False/>
			</Node>
			<Node id="true child" score="true" recordCount="1">
				<True/>
				<ScoreDistribution value="false" recordCount="0"/>
				<ScoreDistribution value="true" recordCount="1"/>
			</Node>
		</Node>
	</TreeModel>
</PMML> 
